digraph Tree {
node [shape=box, style="filled", color="black"] ;
0 [label="petal length (cm) <= 2.6\nentropy = 1.581\nsamples = 120\nvalue = [36, 41, 43]\nclass = virginica", fillcolor="#fcfafe"] ;
1 [label="entropy = 0.0\nsamples = 36\nvalue = [36, 0, 0]\nclass = setosa", fillcolor="#e58139"] ;
0 -> 1 [labeldistance=2.5, labelangle=45, headlabel="True"] ;
2 [label="petal length (cm) <= 4.85\nentropy = 1.0\nsamples = 84\nvalue = [0, 41, 43]\nclass = virginica", fillcolor="#f9f6fe"] ;
0 -> 2 [labeldistance=2.5, labelangle=-45, headlabel="False"] ;
3 [label="petal width (cm) <= 1.65\nentropy = 0.286\nsamples = 40\nvalue = [0, 38, 2]\nclass = versicolor", fillcolor="#43e688"] ;
2 -> 3 ;
4 [label="entropy = 0.0\nsamples = 37\nvalue = [0, 37, 0]\nclass = versicolor", fillcolor="#39e581"] ;
3 -> 4 ;
5 [label="entropy = 0.918\nsamples = 3\nvalue = [0, 1, 2]\nclass = virginica", fillcolor="#c09cf2"] ;
3 -> 5 ;
6 [label="petal width (cm) <= 1.75\nentropy = 0.359\nsamples = 44\nvalue = [0, 3, 41]\nclass = virginica", fillcolor="#8a47e7"] ;
2 -> 6 ;
7 [label="entropy = 0.985\nsamples = 7\nvalue = [0, 3, 4]\nclass = virginica", fillcolor="#e0cef8"] ;
6 -> 7 ;
8 [label="entropy = 0.0\nsamples = 37\nvalue = [0, 0, 37]\nclass = virginica", fillcolor="#8139e5"] ;
6 -> 8 ;
}